sigma,filter_size,mean_delta_PSNR,mean_delta_SSIM,mean_delta_brisque,mean_delta_niqe
0.4,3,0.475294171044863,0.284045802840184,-1.75426687269684,-19.7443837640086
0.7,3,2.50910980877856,1.38697145818978,1.80550979919979,-55.7985123407523
1.1,3,3.02075854000276,1.63658991296451,0.661997182001367,-40.1550046638998
1.4,3,3.11591075141273,1.6831151616342,-0.23132312012125,-37.906075683807
1.7,3,3.15675415785474,1.70074343196502,-0.525433751351776,-36.6557229437978
2,3,3.17550225082956,1.7087674171899,-0.963913768636633,-36.2649876982869
2.3,3,3.18659316522967,1.71329516897082,-1.14846673622741,-35.6857106137445
2.6,3,3.19576238117519,1.71708769771729,-1.26687978793152,-35.3663610462333
2.9,3,3.20218873401722,1.71977202167884,-1.30967371710035,-35.2262448257787
0.4,5,0.442059133835135,0.277286951778208,-1.82288562248793,-19.8570740010911
0.7,5,2.64504253306306,1.45241122429212,2.27985725465899,-56.7553937184101
1.1,5,3.71477616856236,1.94483024066461,5.5712244114336,-42.660321217096
1.4,5,3.8906924744739,2.03044057474875,6.98175089029578,-39.8290105928071
1.7,5,3.90566019005594,2.04175977331513,6.15324947241375,-36.1616492446906
2,5,3.88421295715263,2.03637221728664,5.69363501715391,-35.4480281180775
2.3,5,3.84927309902777,2.02192755920322,5.20778926258844,-34.0847551576011
2.6,5,3.82052609196185,2.01127887428094,4.88754675614715,-33.5534662547041
2.9,5,3.79663077701424,2.0024214879884,4.64107674667178,-32.8143280676049
0.4,7,0.442123529604761,0.277302315383724,-1.82278618178302,-19.8539251101254
0.7,7,2.6487080186062,1.45335538426717,2.28559729208104,-56.765268578026
1.1,7,3.80042720748919,1.97634875370274,6.48768809838787,-41.928632102583
1.4,7,3.89383623394567,2.03845149498105,7.62464354193942,-36.5553225432831
1.7,7,3.63233681850614,1.96034441047927,8.90751521120824,-30.219774928152
2,7,3.27289916082932,1.83375039183228,9.76794522560949,-25.3095289143377
2.3,7,2.94755106453836,1.71440173043459,9.74939419247296,-23.1420349773914
2.6,7,2.67949184420835,1.61270210869329,9.64546689236239,-20.6082664505308
2.9,7,2.46983087043487,1.53666436393192,9.59223092876904,-19.5620594571984
0.4,9,0.44212350558432,0.277302314053925,-1.82278617969768,-19.8539245535521
0.7,9,2.64871276915847,1.45335655876803,2.28559864027582,-56.7654557850311
1.1,9,3.80513028726998,1.97785019837269,6.47478770983947,-41.7841185609159
1.4,9,3.86132406103953,2.0304526852717,7.59924418599564,-35.5994737746028
1.7,9,3.37715065583075,1.88653289022247,9.09755439149906,-27.0679707943172
2,9,2.6376484523598,1.64332339354614,9.54622157023172,-20.0559258912984
2.3,9,1.89191128618308,1.3848811529338,9.3731703835687,-14.7849282368218
2.6,9,1.24885109114945,1.15355858030512,9.65482305034297,-10.9003465478739
2.9,9,0.719133054772942,0.955559853825149,9.4433291849228,-8.51837670700678
0.4,11,0.442123487359927,0.277302311441599,-1.82278618291164,-19.8539244091405
0.7,11,2.64871276915847,1.45335655876803,2.28559864027582,-56.7654557850311
1.1,11,3.80525704802147,1.97788642901558,6.47474230434607,-41.7812340192952
1.4,11,3.85693035221764,2.02946842734608,7.56038321678948,-35.5241030155086
1.7,11,3.30223467055355,1.86939413481588,9.09862398299327,-26.5597038437743
2,11,2.34283629509371,1.5654344441443,9.45559876548857,-18.780316504382
2.3,11,1.26437157028158,1.21082195806439,9.82351456632501,-11.8412449327391
2.6,11,0.245912493089023,0.863407798063567,9.88118374394248,-5.8826757693598
2.9,11,-0.638052944799604,0.547655575389743,9.69017411791548,-2.20078883990687
0.4,13,0.442123462775844,0.277302304628457,-1.82278616778336,-19.8539244046458
0.7,13,2.64871276915847,1.45335655876803,2.28559864027582,-56.7654557850311
1.1,13,3.80525794655017,1.97788660152292,6.47470348028353,-41.7826014706282
1.4,13,3.85666269177119,2.02943482703017,7.55722936211262,-35.5293239957176
1.7,13,3.28936103694339,1.86688164180761,9.11248201222293,-26.5219936870865
2,13,2.2550190360304,1.54611035700416,9.52064327505221,-18.0231263273079
2.3,13,0.996861794988247,1.1495779426362,9.98445277062459,-10.7934265070623
2.6,13,-0.288318560528655,0.729651302632794,10.0395715768148,-4.24953915220815
2.9,13,-1.47191325649437,0.326613458063668,10.0254021380164,0.813942065825562
0.4,15,0.442123444502841,0.277302301973669,-1.82278628781093,-19.8539315593071
0.7,15,2.64871276915847,1.45335655876803,2.28559864027582,-56.7654557850311
1.1,15,3.80525796430701,1.97788659681611,6.47470352003377,-41.7826025011772
1.4,15,3.85665463570636,2.02943445728561,7.55729391740637,-35.5255822837149
1.7,15,3.28797137056418,1.86666998534596,9.11445348043342,-26.5245040765833
2,15,2.23643349173451,1.54287023202521,9.51849622011283,-17.9996237449723
2.3,15,0.909624857988703,1.13251365159091,10.0911466563616,-10.5779997649483
2.6,15,-0.517749997732585,0.680871677544195,10.1404264497523,-3.83877191909109
2.9,15,-1.90243635125341,0.230917549556459,10.3064528812397,2.1072718505446
0.4,17,0.442123444865153,0.277302302068145,-1.82278628954607,-19.8539317453292
0.7,17,2.64871276915847,1.45335655876803,2.28559864027582,-56.7654557850311
1.1,17,3.80525796430701,1.97788659681611,6.47470352003377,-41.7826025011772
1.4,17,3.85665473392103,2.02943454151239,7.55728476803391,-35.5249327474711
1.7,17,3.28786905027898,1.86665713322943,9.11370433055638,-26.5226026773169
2,17,2.23352163478876,1.54245586382635,9.51866062097024,-17.9783155129981
2.3,17,0.887375375282,1.12900332877206,10.1234428413879,-10.5212150520501
2.6,17,-0.598941247845122,0.666455697636746,10.2278065840459,-3.58038558434887
2.9,17,-2.09405515195652,0.194272618047674,10.4243828170294,2.55754170019678
0.4,19,0.442123568033241,0.277302325235524,-1.82278622800871,-19.8539236456835
0.7,19,2.64871276915847,1.45335655876803,2.28559864027582,-56.7654557850311
1.1,19,3.80525796430701,1.97788659681611,6.47470352003377,-41.7826025011772
1.4,19,3.85665467848319,2.0294345203897,7.55728480150138,-35.524811785337
1.7,19,3.28786390586856,1.86665645622551,9.11411924648226,-26.522127826754
2,19,2.23316407855375,1.5424129140837,9.51644129718212,-17.9826156404688
2.3,19,0.882856096506588,1.12843025691932,10.1264301868247,-10.4982322425897
2.6,19,-0.623045303797455,0.662922819209929,10.2385863515887,-3.5286840943109
2.9,19,-2.16785530841935,0.182096134997812,10.4697166855355,2.76432873959092
